tree
version=v2
num_class=1
num_tree_per_iteration=1
label_index=0
max_feature_idx=21
objective=binary sigmoid:1
feature_names=MultipleLines_Yes InternetService_DSL InternetService_Fiber_optic OnlineSecurity_Yes OnlineBackup_Yes DeviceProtection_Yes TechSupport_Yes StreamingTV_Yes StreamingMovies_Yes Contract_Month-to-month Contract_One_year Contract_Two_year PaymentMethod_Bank_transfer_(automatic) PaymentMethod_Credit_card_(automatic) PaymentMethod_Electronic_check PaymentMethod_Mailed_check Partner_Yes Dependents_Yes PaperlessBilling_Yes tenure MonthlyCharges SeniorCitizen
feature_infos=[0:1] [0:1] [0:1] [0:1] [0:1] [0:1] [0:1] [0:1] [0:1] [0:1] [0:1] [0:1] [0:1] [0:1] [0:1] [0:1] [0:1] [0:1] [0:1] [-1.318164947398796:1.6137012404433893] [-1.5458598200734601:1.7943521502604476] [0:1]
tree_sizes=498 505 504 582 581 508 583 584 665 588 665 587 586 667 671 592 751 591 752 672 668 671 588 751 671 666 746 676 754 755 670 752 675 593 592 589 583 593 666 757 595 671 758 512 596 592 751 751 753 669 676 753 759 673 672 599 672 593 757 671 752 673 676 670 766 834 666 752 600 680 751 755 676 679 675 676 752 759 677 762 756 760 764 674 597 752 759 670 845 755 931 843 763 678 668 758 764 686 674 846

Tree=0
num_leaves=5
num_cat=0
split_feature=9 2 19 19
split_gain=811.193 172.294 58.9446 45.0117
threshold=1.0000000180025095e-35 1.0000000180025095e-35 -1.1349233106586591 -0.11691421765790057
decision_type=2 2 2 2
left_child=-1 2 -2 -3
right_child=1 3 -4 -5
leaf_value=-1.099195182931489 -0.96672591844093014 -0.8812693222086152 -1.0382014480785027 -0.98869020810505204
leaf_count=2521 538 1181 859 535
internal_value=0 0.722244 0.0718813 1.11359
internal_count=5634 3113 1397 1716
shrinkage=1


Tree=1
num_leaves=5
num_cat=0
split_feature=9 2 19 19
split_gain=700.334 138.873 52.2463 33.2134
threshold=1.0000000180025095e-35 1.0000000180025095e-35 -1.1349233106586591 -0.076193853937870218
decision_type=2 2 2 2
left_child=-1 2 -2 -3
right_child=1 3 -4 -5
leaf_value=-0.08208449417715058 0.043281612657879637 0.11666324687057526 -0.023929743557061085 0.021608600514390206
leaf_count=2521 538 1205 859 511
internal_value=0 0.659363 0.0700195 1.00145
internal_count=5634 3113 1397 1716
shrinkage=0.1


Tree=2
num_leaves=5
num_cat=0
split_feature=9 2 19 19
split_gain=605.54 112.784 46.3158 24.9064
threshold=1.0000000180025095e-35 1.0000000180025095e-35 -1.1349233106586591 -0.11691421765790057
decision_type=2 2 2 2
left_child=-1 2 -2 -3
right_child=1 3 -4 -5
leaf_value=-0.078120467651406802 0.04061418645766926 0.10530371792548686 -0.022606927318068428 0.021337017960801018
leaf_count=2521 538 1181 859 535
internal_value=0 0.603493 0.0679907 0.905101
internal_count=5634 3113 1397 1716
shrinkage=0.1


Tree=3
num_leaves=6
num_cat=0
split_feature=9 2 19 19 20
split_gain=524.68 92.4157 41.0645 23.5851 2.8422
threshold=1.0000000180025095e-35 1.0000000180025095e-35 -1.1349233106586591 -0.60555858229826465 0.96345365017738605
decision_type=2 2 2 2 2
left_child=4 2 -2 -3 -1
right_child=1 3 -4 -5 -6
leaf_value=-0.082036255754135076 0.038127906652248598 0.10306350843846766 -0.021356631420526462 0.028507495088165576 -0.022410873977428154
leaf_count=1905 538 903 859 813 616
internal_value=0 0.554123 0.0658396 0.822379 -0.743905
internal_count=5634 3113 1397 1716 2521
shrinkage=0.1


Tree=4
num_leaves=6
num_cat=0
split_feature=9 2 19 19 20
split_gain=460.492 77.1348 36.6356 19.053 2.37518
threshold=1.0000000180025095e-35 1.0000000180025095e-35 -1.0942029469386287 -0.60555858229826465 0.96345365017738605
decision_type=2 2 2 2 2
left_child=4 2 -2 -3 -1
right_child=1 3 -4 -5 -6
leaf_value=-0.07865530032404372 0.034816487776971626 0.094106351301218388 -0.021170160522089521 0.02651462048297637 -0.021402312928594947
leaf_count=1905 583 903 814 813 616
internal_value=0 0.512413 0.0636034 0.754186 -0.71206
internal_count=5634 3113 1397 1716 2521
shrinkage=0.1


Tree=5
num_leaves=5
num_cat=0
split_feature=9 14 19 20
split_gain=404.553 68.7002 30.2634 2.06868
threshold=1.0000000180025095e-35 1.0000000180025095e-35 -0.89060112833847704 1.1603765946970719
decision_type=2 2 2 2
left_child=3 2 -2 -1
right_child=1 -3 -4 -5
leaf_value=-0.073860743879868143 0.032808562900601135 0.074347406338208688 -0.015395442999021989 -0.016948058895545622
leaf_count=2046 767 1492 854 475
internal_value=0 0.474292 0.102225 -0.681916
internal_count=5634 3113 1621 2521
shrinkage=0.1


Tree=6
num_leaves=6
num_cat=0
split_feature=9 2 19 19 20
split_gain=352.026 63.6713 31.6412 17.4221 2.39489
threshold=1.0000000180025095e-35 1.0000000180025095e-35 -1.1756436743786896 -0.68699930973832535 0.96345365017738605
decision_type=2 2 2 2 2
left_child=4 2 -2 -3 -1
right_child=1 3 -4 -5 -6
leaf_value=-0.072489786188787528 0.033021869530662822 0.083273897279705369 -0.019179737393466949 0.023747360198864916 -0.019104387143237866
leaf_count=1905 470 839 927 877 616
internal_value=0 0.43367 0.0366393 0.64965 -0.652625
internal_count=5634 3113 1397 1716 2521
shrinkage=0.1


Tree=7
num_leaves=6
num_cat=0
split_feature=9 2 19 19 20
split_gain=310.763 53.7727 28.156 15.2983 2.09845
threshold=1.0000000180025095e-35 1.0000000180025095e-35 -1.1756436743786896 -0.76844003717838605 0.94766657867580784
decision_type=2 2 2 2 2
left_child=4 2 -2 -3 -1
right_child=1 3 -4 -5 -6
leaf_value=-0.069687459522115552 0.031158860330343121 0.078422606223469984 -0.018072064456718041 0.023309694854588107 -0.018407285807519956
leaf_count=1896 470 777 927 939 625
internal_value=0 0.403591 0.0365913 0.600526 -0.625327
internal_count=5634 3113 1397 1716 2521
shrinkage=0.1


Tree=8
num_leaves=7
num_cat=0
split_feature=9 14 19 20 20 19
split_gain=274.87 51.5504 23.6104 7.05057 1.84479 0.154218
threshold=1.0000000180025095e-35 1.0000000180025095e-35 -1.0127622194985679 0.30122754561118575 0.94766657867580784 -0.40195676369811301
decision_type=2 2 2 2 2 2
left_child=4 2 -2 -4 -1 -3
right_child=1 5 3 -5 -6 -7
leaf_value=-0.066924457699787124 0.028632488011642528 0.067415886963185054 -0.025179643445513707 0.0039821593107760437 -0.017579732750432123 0.018782469432433488
leaf_count=1896 636 1016 517 468 625 476
internal_value=0 0.376349 0.0633803 -0.137573 -0.599293 0.603911
internal_count=5634 3113 1621 985 2521 1492
shrinkage=0.1


Tree=9
num_leaves=6
num_cat=0
split_feature=9 20 3 20 18
split_gain=242.269 45.9234 33.9756 1.62805 1.18863
threshold=1.0000000180025095e-35 -1.1478594385336731 1.0000000180025095e-35 0.96345365017738605 1.0000000180025095e-35
decision_type=2 2 2 2 2
left_child=3 -2 4 -1 -3
right_child=1 2 -4 -5 -6
leaf_value=-0.064191695143558269 -0.014719369867391675 0.017386003118112215 -0.0016485556946523945 -0.016640124444766292 0.061144719356479971
leaf_count=1905 532 500 575 616 1506
internal_value=0 0.348811 0.450191 -0.57439 0.555376
internal_count=5634 3113 2581 2521 2006
shrinkage=0.1


Tree=10
num_leaves=7
num_cat=0
split_feature=9 14 19 20 19 20
split_gain=212.059 42.7012 21.9643 5.36881 1.65213 1.46669
threshold=1.0000000180025095e-35 1.0000000180025095e-35 -1.0127622194985679 0.30122754561118575 -0.40195676369811301 0.94766657867580784
decision_type=2 2 2 2 2 2
left_child=5 2 -2 -4 -3 -1
right_child=1 4 3 -5 -6 -7
leaf_value=-0.061739871599752763 0.025799380205705061 0.059094383247341835 -0.024714155750866093 0.0018158282314864394 0.015629719814040072 -0.016017658571396486
leaf_count=1896 636 1016 517 468 476 625
internal_value=0 0.31977 0.0410262 -0.148374 0.524453 -0.550503
internal_count=5634 3113 1621 985 1492 2521
shrinkage=0.1


Tree=11
num_leaves=6
num_cat=0
split_feature=9 2 19 19 20
split_gain=187.248 39.0606 22.1257 14.9994 1.30049
threshold=1.0000000180025095e-35 1.0000000180025095e-35 -1.1756436743786896 -0.76844003717838605 0.94766657867580784
decision_type=2 2 2 2 2
left_child=4 2 -2 -3 -1
right_child=1 3 -4 -5 -6
leaf_value=-0.059297292482112809 0.024547308964223528 0.062665364423159439 -0.018758756294104794 0.016123244540754828 -0.015299813749401748
leaf_count=1896 470 777 927 939 625
internal_value=0 0.296596 -0.00167488 0.462315 -0.52763
internal_count=5634 3113 1397 1716 2521
shrinkage=0.1


Tree=12
num_leaves=6
num_cat=0
split_feature=9 20 19 14 20
split_gain=166.322 35.9947 35.5284 12.6349 1.15439
threshold=1.0000000180025095e-35 -1.1844189725373282 -0.64627894601829505 1.0000000180025095e-35 0.94766657867580784
decision_type=2 2 2 2 2
left_child=4 -2 -3 -4 -1
right_child=1 2 3 -5 -6
leaf_value=-0.056946854805288175 -0.016033063564877267 0.053955345625289225 -0.013353837864949064 0.020226909725849843 -0.0146147821319676
leaf_count=1896 496 1425 605 587 625
internal_value=0 0.27743 0.364698 0.0480552 -0.505683
internal_count=5634 3113 2617 1192 2521
shrinkage=0.1


Tree=13
num_leaves=7
num_cat=0
split_feature=9 14 19 20 20 19
split_gain=146.003 32.7177 16.9864 7.65952 1.02527 0.760415
threshold=1.0000000180025095e-35 1.0000000180025095e-35 -1.0942029469386287 0.30122754561118575 0.94766657867580784 -0.40195676369811301
decision_type=2 2 2 2 2 2
left_child=4 2 -2 -4 -1 -3
right_child=1 5 3 -5 -6 -7
leaf_value=-0.054683450729709926 0.022507588828267523 0.048560134750584599 -0.025123996900062409 0.0042777418439445842 -0.013961006537971549 0.013242959215663231
leaf_count=1896 536 1016 590 495 625 476
internal_value=0 0.254656 0.016574 -0.134852 -0.484613 0.432188
internal_count=5634 3113 1621 1085 2521 1492
shrinkage=0.1


Tree=14
num_leaves=7
num_cat=0
split_feature=9 2 20 10 20 4
split_gain=129.424 30.9425 6.80821 1.21924 6.02959 0.75794
threshold=1.0000000180025095e-35 1.0000000180025095e-35 -1.1844189725373282 1.0000000180025095e-35 0.17326917659839444 1.0000000180025095e-35
decision_type=2 2 2 2 2 2
left_child=3 2 -2 -1 -5 -3
right_child=1 5 -4 4 -6 -7
leaf_value=-0.055765853005131663 -0.015827411044728103 0.04346245237840652 0.0083437840159965599 -0.028033268518306027 0.0028749830603377303 0.013156466755954145
leaf_count=1336 496 1165 901 613 572 551
internal_value=0 0.236907 -0.0212182 -0.464381 -0.171342 0.384308
internal_count=5634 3113 1397 2521 1185 1716
shrinkage=0.1


Tree=15
num_leaves=6
num_cat=0
split_feature=9 18 19 19 20
split_gain=115.447 28.3232 13.8476 9.46671 1.59823
threshold=1.0000000180025095e-35 1.0000000180025095e-35 -0.64627894601829505 -0.93132149205850745 0.94766657867580784
decision_type=2 2 2 2 2
left_child=4 3 -3 -2 -1
right_child=1 2 -4 -5 -6
leaf_value=-0.050946758536594132 0.0096984830538201817 0.045633674094008508 0.0079983778335115246 -0.020788521498791651 -0.012209590591382919
leaf_count=1896 546 1150 931 486 625
internal_value=0 0.219047 0.337605 -0.0604802 -0.447315
internal_count=5634 3113 2081 1032 2521
shrinkage=0.1


Tree=16
num_leaves=8
num_cat=0
split_feature=9 14 19 20 10 20 19
split_gain=101.975 27.1647 15.1238 5.64268 2.45861 5.75127 0.651095
threshold=1.0000000180025095e-35 1.0000000180025095e-35 -1.0942029469386287 0.30122754561118575 1.0000000180025095e-35 0.17326917659839444 -0.40195676369811301
decision_type=2 2 2 2 2 2 2
left_child=4 2 -2 -4 -1 -6 -3
right_child=1 6 3 -5 5 -7 -8
leaf_value=-0.052360038430884541 0.019251617054749991 0.040919759567261224 -0.024535185575146848 0.0018362674181067525 -0.025624061499775936 0.0038671453526253128 0.011126168628799822
leaf_count=1336 536 1016 590 495 613 572 476
internal_value=0 0.202172 -0.0077147 -0.146431 -0.428501 -0.146774 0.363461
internal_count=5634 3113 1621 1085 2521 1185 1492
shrinkage=0.1


Tree=17
num_leaves=6
num_cat=0
split_feature=9 2 19 19 10
split_gain=91.4601 25.8972 16.025 10.8026 2.09107
threshold=1.0000000180025095e-35 1.0000000180025095e-35 -1.1756436743786896 -0.76844003717838605 1.0000000180025095e-35
decision_type=2 2 2 2 2
left_child=4 2 -2 -3 -1
right_child=1 3 -4 -5 -6
leaf_value=-0.050470263265059878 0.017616286632685205 0.045700091510626803 -0.019233697514486541 0.0098614449937890654 -0.014205030829119551
leaf_count=1336 470 777 927 939 1185
internal_value=0 0.188059 -0.0405895 0.323463 -0.412769
internal_count=5634 3113 1397 1716 2521
shrinkage=0.1


Tree=18
num_leaves=8
num_cat=0
split_feature=14 19 20 18 8 4 2
split_gain=82.182 39.7646 12.1499 9.05328 4.15021 0.849545 0.0748331
threshold=1.0000000180025095e-35 -0.80916040089841645 -0.6609529174849994 1.0000000180025095e-35 1.0000000180025095e-35 1.0000000180025095e-35 1.0000000180025095e-35
decision_type=2 2 2 2 2 2 2
left_child=1 2 -1 -2 -3 -5 -6
right_child=3 4 -4 5 6 -7 -8
leaf_value=-0.011671902179636717 0.0013485077795317942 -0.048821996105781813 0.024373243743031431 0.041928788792746342 -0.017014588603995844 0.010740672509880131 -0.0043002830475128628
leaf_count=476 484 1657 484 909 514 503 607
internal_value=0 -0.23613 0.0973778 0.301824 -0.39933 0.368202 -0.136315
internal_count=5634 3738 960 1896 2778 1412 1121
shrinkage=0.1


Tree=19
num_leaves=7
num_cat=0
split_feature=9 20 3 19 10 7
split_gain=76.7579 21.8409 21.834 13.7809 2.56093 9.34427
threshold=1.0000000180025095e-35 -1.1844189725373282 1.0000000180025095e-35 -0.89060112833847704 1.0000000180025095e-35 1.0000000180025095e-35
decision_type=2 2 2 2 2 2
left_child=4 -2 3 -3 -1 -6
right_child=1 2 -4 -5 5 -7
leaf_value=-0.047812742066133895 -0.015740976518608184 0.046338780731605703 -0.0084017986236743711 0.0094081035632589891 -0.026774558407999124 0.0088142070488222059
leaf_count=1336 496 960 583 1074 659 526
internal_value=0 0.170084 0.239845 0.325139 -0.386269 -0.126648
internal_count=5634 3113 2617 2034 2521 1185
shrinkage=0.1


Tree=20
num_leaves=7
num_cat=0
split_feature=9 18 19 20 19 20
split_gain=68.6802 20.6675 9.58498 10.5465 6.11677 2.8499
threshold=1.0000000180025095e-35 1.0000000180025095e-35 -1.0534825832185983 0.46574544862763206 -0.93132149205850745 0.96345365017738605
decision_type=2 2 2 2 2 2
left_child=5 4 -3 -4 -2 -1
right_child=1 2 3 -5 -6 -7
leaf_value=-0.043503848354209208 0.0059634173848311517 0.041043621226026721 -0.0091307750401789425 0.020990849858061475 -0.019095291038794343 -0.0083235362897162105
leaf_count=1905 546 668 593 820 486 616
internal_value=0 0.157154 0.259205 0.100538 -0.0750022 -0.372036
internal_count=5634 3113 2081 1413 1032 2521
shrinkage=0.1


Tree=21
num_leaves=7
num_cat=0
split_feature=14 19 2 18 19 4
split_gain=64.3667 30.2299 8.29298 6.84399 6.76086 0.775688
threshold=1.0000000180025095e-35 -1.0942029469386287 1.0000000180025095e-35 1.0000000180025095e-35 0.69749305674270656 1.0000000180025095e-35
decision_type=2 2 2 2 2 2
left_child=1 -1 -3 -2 -4 -5
right_child=3 2 4 5 -6 -7
leaf_value=0.013430768764233804 0.0011163180211040608 -0.043673266848782456 0.0052825312081892315 0.036517927420774247 -0.02258553423756068 0.0092030847230826895
leaf_count=574 484 2103 539 909 522 503
internal_value=0 -0.216934 -0.331325 0.26232 -0.0984109 0.319936
internal_count=5634 3738 3164 1896 1061 1412
shrinkage=0.1


Tree=22
num_leaves=6
num_cat=0
split_feature=14 19 20 4 20
split_gain=56.6154 27.8947 13.1152 4.71217 2.89134
threshold=1.0000000180025095e-35 -0.64627894601829505 -1.1478594385336731 1.0000000180025095e-35 1.055683383686606
decision_type=2 2 2 2 2
left_child=1 2 -1 -2 -3
right_child=3 4 -4 -5 -6
leaf_value=-0.016168674495100979 0.030416766190038913 -0.040768295301029558 0.019800538874888012 0.0041698271936370969 -0.0068688344619088392
leaf_count=470 1242 2121 652 654 495
internal_value=0 -0.205284 0.0573187 0.24518 -0.360373
internal_count=5634 3738 1122 1896 2616
shrinkage=0.1


Tree=23
num_leaves=8
num_cat=0
split_feature=9 19 7 0 10 8 20
split_gain=51.9971 17.3329 21.1523 8.03821 4.19022 9.71966 0.187805
threshold=1.0000000180025095e-35 -1.2163640380987197 1.0000000180025095e-35 1.0000000180025095e-35 1.0000000180025095e-35 1.0000000180025095e-35 0.97924072167896425
decision_type=2 2 2 2 2 2 2
left_child=4 -2 3 -3 -1 -6 -4
right_child=1 2 6 -5 5 -7 -8
leaf_value=-0.043062695354443313 0.034504694020743486 -0.022209117077621035 0.0068007899382423118 0.0051307433287850358 -0.024519521272152588 0.011157966628741241 0.025805236751958033
leaf_count=1336 675 940 479 550 653 532 469
internal_value=0 0.134069 0.0244466 -0.128672 -0.333726 -0.0897255 0.216434
internal_count=5634 3113 2438 1490 2521 1185 948
shrinkage=0.1


Tree=24
num_leaves=7
num_cat=0
split_feature=14 19 20 18 20 4
split_gain=46.8423 23.1703 12.0892 6.23927 1.88696 0.339219
threshold=1.0000000180025095e-35 -0.60555858229826465 -1.1628156115351687 1.0000000180025095e-35 1.055683383686606 1.0000000180025095e-35
decision_type=2 2 2 2 2 2
left_child=1 2 -1 -2 -3 -5
right_child=3 4 -4 5 -6 -7
leaf_value=-0.016327909322742862 -0.00033738607561431674 -0.03802282424229117 0.017910068202632551 0.031355755886419388 -0.0069135809933371338 0.0082125603446762188
leaf_count=483 484 2074 690 909 491 503
internal_value=0 -0.190094 0.0452517 0.221235 -0.337641 0.276154
internal_count=5634 3738 1173 1896 2565 1412
shrinkage=0.1


Tree=25
num_leaves=7
num_cat=0
split_feature=9 20 6 19 10 8
split_gain=44.06 15.0688 17.0332 6.86376 4.09868 8.8702
threshold=1.0000000180025095e-35 -1.1844189725373282 1.0000000180025095e-35 -1.0942029469386287 1.0000000180025095e-35 1.0000000180025095e-35
decision_type=2 2 2 2 2 2
left_child=4 -2 3 -3 -1 -6
right_child=1 2 -4 -5 5 -7
leaf_value=-0.040737481360142831 -0.014580834540275818 0.038670659982618545 -0.010503393180655546 0.010903716205893027 -0.023130881790722216 0.010943553871002043
leaf_count=1336 496 677 519 1421 653 532
internal_value=0 0.122347 0.181486 0.254508 -0.31213 -0.0799197
internal_count=5634 3113 2617 2098 2521 1185
shrinkage=0.1


Tree=26
num_leaves=8
num_cat=0
split_feature=9 19 20 19 10 8 1
split_gain=39.6726 14.9037 18.731 4.00899 3.6958 8.26826 1.82112
threshold=1.0000000180025095e-35 -1.2570844018187501 0.47239263662829661 -0.11691421765790057 1.0000000180025095e-35 1.0000000180025095e-35 1.0000000180025095e-35
decision_type=2 2 2 2 2 2 2
left_child=4 -2 6 -4 -1 -6 -3
right_child=1 2 3 -5 5 -7 -8
leaf_value=-0.039290224058390479 0.033811410977376506 -0.01901478357252015 0.024557599343884625 0.00096461587774122773 -0.022465823168007628 0.010475151665277809 -0.0027397405295179755
leaf_count=1336 485 654 700 490 653 532 784
internal_value=0 0.113356 0.024005 0.17952 -0.30081 -0.0776903 -0.133355
internal_count=5634 3113 2628 1190 2521 1185 1438
shrinkage=0.1


Tree=27
num_leaves=7
num_cat=0
split_feature=14 19 8 11 18 4
split_gain=36.7889 18.1984 7.86522 9.43677 5.53597 0.318882
threshold=1.0000000180025095e-35 -1.0942029469386287 1.0000000180025095e-35 1.0000000180025095e-35 1.0000000180025095e-35 1.0000000180025095e-35
decision_type=2 2 2 2 2 2
left_child=1 -1 -3 -4 -2 -6
right_child=4 2 3 -5 5 -7
leaf_value=0.0098698720219224812 -0.0011401098365851231 -0.0359100271079471 0.0099738345763373693 -0.023432781016552898 0.027808959645024462 0.0071983136034711407
leaf_count=574 484 1964 690 510 909 503
internal_value=0 -0.174114 -0.267643 -0.0489142 0.192578 0.244481
internal_count=5634 3738 3164 1200 1896 1412
shrinkage=0.1


Tree=28
num_leaves=8
num_cat=0
split_feature=9 2 19 19 7 10 8
split_gain=34.006 13.1206 6.91131 6.35637 5.56746 3.23306 7.11308
threshold=1.0000000180025095e-35 1.0000000180025095e-35 -1.1756436743786896 -0.97204185577853786 1.0000000180025095e-35 1.0000000180025095e-35 1.0000000180025095e-35
decision_type=2 2 2 2 2 2 2
left_child=5 2 -2 -3 -5 -1 -7
right_child=1 3 -4 4 -6 6 -8
leaf_value=-0.037058684294782235 0.0093789217086174409 0.032448306555233938 -0.015222368796659861 -0.0067058359809342759 0.015897243160208956 -0.021078884860818711 0.0095586584817641505
leaf_count=1336 470 593 927 524 599 653 532
internal_value=0 0.103684 -0.0539341 0.201591 0.0646042 -0.282736 -0.0728658
internal_count=5634 3113 1397 1716 1123 2521 1185
shrinkage=0.1


Tree=29
num_leaves=8
num_cat=0
split_feature=9 18 19 0 7 10 19
split_gain=31.0623 12.4867 5.54038 7.78959 3.18934 6.43129 2.92853
threshold=1.0000000180025095e-35 1.0000000180025095e-35 -1.0534825832185983 1.0000000180025095e-35 1.0000000180025095e-35 1.0000000180025095e-35 -0.93132149205850745
decision_type=2 2 2 2 2 2 2
left_child=4 6 -3 -4 -1 -6 -2
right_child=1 2 3 -5 5 -7 -8
leaf_value=-0.03597155974509559 0.0024316878288853814 0.029255910743053948 -0.0085256754582972907 0.016829874192575745 -0.019852472739528171 0.0092893649588719016 -0.01573820138317714
leaf_count=1386 546 668 656 757 609 526 486
internal_value=0 0.0981527 0.178905 0.0635099 -0.272744 -0.0685123 -0.0783283
internal_count=5634 3113 2081 1413 2521 1135 1032
shrinkage=0.1


Tree=30
num_leaves=7
num_cat=0
split_feature=14 19 20 18 20 0
split_gain=29.1655 14.6916 8.90219 4.23239 1.44219 0.746548
threshold=1.0000000180025095e-35 -0.60555858229826465 -1.1628156115351687 1.0000000180025095e-35 1.055683383686606 1.0000000180025095e-35
decision_type=2 2 2 2 2 2
left_child=1 2 -1 -2 -3 -5
right_child=3 4 -4 5 -6 -7
leaf_value=-0.014806898987484808 -0.00099675113938056518 -0.031946794062521884 0.01464087918059866 0.0075220539384939031 -0.0054839438099417784 0.026361453087282868
leaf_count=483 484 2074 690 684 491 728
internal_value=0 -0.159385 0.0300159 0.169017 -0.281699 0.21444
internal_count=5634 3738 1173 1896 2565 1412
shrinkage=0.1


Tree=31
num_leaves=8
num_cat=0
split_feature=9 19 7 0 10 8 20
split_gain=26.4428 12.2796 14.8279 6.14973 3.18477 6.17183 0.771789
threshold=1.0000000180025095e-35 -1.2570844018187501 1.0000000180025095e-35 1.0000000180025095e-35 1.0000000180025095e-35 1.0000000180025095e-35 0.96345365017738605
decision_type=2 2 2 2 2 2 2
left_child=4 -2 3 -3 -1 -6 -4
right_child=1 2 6 -5 5 -7 -8
leaf_value=-0.034180654896563287 0.0292608059277027 -0.018883995346117042 0.0043689065227270184 0.0044871784687716887 -0.019233805199178181 0.0092893788358603246 0.021239605457111982
leaf_count=1336 485 1067 485 576 653 532 500
internal_value=0 0.088803 0.00934777 -0.111576 -0.255889 -0.0603575 0.170977
internal_count=5634 3113 2628 1643 2521 1185 985
shrinkage=0.1


Tree=32
num_leaves=7
num_cat=0
split_feature=19 20 18 10 2 0
split_gain=24.8642 25.5273 8.20964 1.85692 0.677953 0.415072
threshold=0.45317087442252435 -1.1844189725373282 1.0000000180025095e-35 1.0000000180025095e-35 1.0000000180025095e-35 1.0000000180025095e-35
decision_type=2 2 2 2 2 2
left_child=1 -1 -3 -2 -4 -6
right_child=3 2 4 -5 5 -7
leaf_value=-0.022012067091915766 -0.028622687238801105 -0.0012745563491056995 0.0072033799410215014 -0.0033894696126348179 0.0094792145520797809 0.032669426304956242
leaf_count=892 1432 844 627 612 560 667
internal_value=0 0.0882753 0.179757 -0.244088 0.243408 0.275115
internal_count=5634 3590 2698 2044 1854 1227
shrinkage=0.1


Tree=33
num_leaves=6
num_cat=0
split_feature=14 19 20 4 8
split_gain=23.2498 12.0502 7.17002 3.27385 2.2785
threshold=1.0000000180025095e-35 -0.60555858229826465 -1.1628156115351687 1.0000000180025095e-35 1.0000000180025095e-35
decision_type=2 2 2 2 2
left_child=1 2 -1 -2 -3
right_child=3 4 -4 -5 -6
leaf_value=-0.013338953754547489 0.01989788114409103 -0.032610589470456884 0.013162487337878687 0.00069286233794891563 -0.0072716500893907415
leaf_count=483 1242 1488 690 654 1077
internal_value=0 -0.143768 0.0275776 0.150891 -0.256554
internal_count=5634 3738 1173 1896 2565
shrinkage=0.1


Tree=34
num_leaves=6
num_cat=0
split_feature=2 3 19 0 8
split_gain=21.8097 15.7655 12.1915 2.59205 1.50945
threshold=1.0000000180025095e-35 1.0000000180025095e-35 -1.1756436743786896 1.0000000180025095e-35 1.0000000180025095e-35
decision_type=2 2 2 2 2
left_child=2 3 -1 -2 -4
right_child=1 -3 4 -5 -6
leaf_value=0.0068045655930766618 0.0055866250570771074 -0.013219028573303444 -0.029687660895975812 0.026340443233609102 -0.0049456690177529334
leaf_count=499 730 681 1904 1075 745
internal_value=0 0.118976 -0.167184 0.20689 -0.258464
internal_count=5634 2486 3148 1805 2649
shrinkage=0.1


Tree=35
num_leaves=6
num_cat=0
split_feature=11 20 3 6 19
split_gain=20.8319 14.1415 16.2978 9.71405 2.73232
threshold=1.0000000180025095e-35 -1.3157009355504516 1.0000000180025095e-35 1.0000000180025095e-35 -1.0942029469386287
decision_type=2 2 2 2 2
left_child=1 -1 3 4 -3
right_child=-2 2 -4 -5 -6
leaf_value=-0.018753940967451213 -0.031173763258251764 0.03464232954773639 -0.011551012665825457 -0.0051381226952005249 0.011521857903723471
leaf_count=745 1336 623 1032 556 1342
internal_value=0 0.0542937 0.110763 0.19072 0.247569
internal_count=5634 4298 3553 2521 1965
shrinkage=0.1


Tree=36
num_leaves=6
num_cat=0
split_feature=19 7 19 20 20
split_gain=19.2035 18.9914 10.7442 3.84031 1.08949
threshold=-1.2570844018187501 1.0000000180025095e-35 0.94181523906288855 0.30122754561118575 0.96345365017738605
decision_type=2 2 2 2 2
left_child=-1 3 4 -2 -3
right_child=1 2 -4 -5 -6
leaf_value=0.025701374767800662 -0.026145195801406867 0.00478942454973882 -0.012563884669818715 -0.0043102812258934689 0.02271029988778632
leaf_count=499 2177 707 815 843 593
internal_value=0 -0.0782498 0.0864942 -0.200875 0.17873
internal_count=5634 5135 2115 3020 1300
shrinkage=0.1


Tree=37
num_leaves=6
num_cat=0
split_feature=19 20 18 10 0
split_gain=18.5785 17.7813 6.64929 1.79487 0.408045
threshold=0.45317087442252435 -1.1844189725373282 1.0000000180025095e-35 1.0000000180025095e-35 1.0000000180025095e-35
decision_type=2 2 2 2 2
left_child=1 -1 -3 -2 -4
right_child=3 2 4 -5 -6
leaf_value=-0.018596490144544751 -0.025591148365120466 -0.0018546281059045476 0.0096361595776750762 -0.002440972113318866 0.026281695494326823
leaf_count=892 1432 844 1059 612 795
internal_value=0 0.0756889 0.15157 -0.215039 0.209145
internal_count=5634 3590 2698 2044 1854
shrinkage=0.1


Tree=38
num_leaves=7
num_cat=0
split_feature=19 7 11 19 19 20
split_gain=17.6688 16.7198 8.00552 2.26391 1.016 0.192124
threshold=-1.0942029469386287 1.0000000180025095e-35 1.0000000180025095e-35 -1.2570844018187501 0.45317087442252435 0.47239263662829661
decision_type=2 2 2 2 2 2
left_child=3 5 4 -1 -3 -2
right_child=1 2 -4 -5 -6 -7
leaf_value=0.024417276735812191 -0.025866374805256328 0.016520744127004338 -0.015044051635431399 0.0037986516620736087 0.0017844741184586553 -0.0067332580567450624
leaf_count=499 2042 824 605 588 544 532
internal_value=0 -0.0986638 0.0629677 0.177372 0.133151 -0.23022
internal_count=5634 4547 1973 1087 1368 2574
shrinkage=0.1


Tree=39
num_leaves=8
num_cat=0
split_feature=18 6 19 17 19 7 19
split_gain=16.7358 14.3186 5.60903 4.04378 1.63942 0.606746 1.1166
threshold=1.0000000180025095e-35 1.0000000180025095e-35 -0.60555858229826465 1.0000000180025095e-35 0.69749305674270656 1.0000000180025095e-35 -0.89060112833847704
decision_type=2 2 2 2 2 2 2
left_child=2 3 -1 5 -3 6 -2
right_child=1 4 -4 -5 -6 -7 -8
leaf_value=-0.0017837885057475436 0.012999757619527767 -0.00085554591242042891 -0.027423173038550658 -0.0016253973178041994 -0.019579486663434419 0.026384006657894782 -0.0001536962219525063
leaf_count=861 515 469 1415 543 531 749 551
internal_value=0 0.0872924 -0.173635 0.168475 -0.134737 0.206079 0.0908016
internal_count=5634 3358 2276 2358 1000 1815 1066
shrinkage=0.1


Tree=40
num_leaves=6
num_cat=0
split_feature=11 21 7 19 4
split_gain=15.6481 10.8773 11.6658 11.781 1.47881
threshold=1.0000000180025095e-35 1.0000000180025095e-35 1.0000000180025095e-35 -1.1349233106586591 1.0000000180025095e-35
decision_type=2 2 2 2 2
left_child=1 2 3 -1 -4
right_child=-2 -3 4 -5 -6
leaf_value=0.0070800291009043108 -0.027637608906672398 0.021794797723874638 0.017044608588922067 -0.022752508719569797 0.00086236032977025879
leaf_count=691 1336 798 686 1618 505
internal_value=0 0.0464905 -0.0228341 -0.117286 0.128203
internal_count=5634 4298 3500 2309 1191
shrinkage=0.1


Tree=41
num_leaves=7
num_cat=0
split_feature=11 20 3 6 19 19
split_gain=14.4389 10.2493 12.4263 7.58329 2.19206 0.230342
threshold=1.0000000180025095e-35 -1.3157009355504516 1.0000000180025095e-35 1.0000000180025095e-35 -1.0942029469386287 -0.3612363999780826
decision_type=2 2 2 2 2 2
left_child=1 -1 3 4 -3 -6
right_child=-2 2 -4 -5 5 -7
leaf_value=-0.016331715762982865 -0.026690302003129825 0.030113090831382128 -0.010497152155352922 -0.0049157429607232543 0.0032023463744620391 0.012395355033408528
leaf_count=745 1336 623 1032 556 634 708
internal_value=0 0.0446284 0.0928014 0.163014 0.213607 0.0982514
internal_count=5634 4298 3553 2521 1965 1342
shrinkage=0.1


Tree=42
num_leaves=8
num_cat=0
split_feature=18 6 19 17 19 7 19
split_gain=13.8409 11.6824 4.55932 3.28503 1.53018 0.337595 0.770467
threshold=1.0000000180025095e-35 1.0000000180025095e-35 -0.60555858229826465 1.0000000180025095e-35 0.69749305674270656 1.0000000180025095e-35 -0.89060112833847704
decision_type=2 2 2 2 2 2 2
left_child=2 3 -1 5 -3 6 -2
right_child=1 4 -4 -5 -6 -7 -8
leaf_value=-0.0018204879725250197 0.011572251115316763 -0.00052091279608465946 -0.025244275227342728 -0.0015057517397917078 -0.01824877424426137 0.023533132624982769 0.00022048070506610999
leaf_count=861 515 469 1415 543 531 749 551
internal_value=0 0.0783726 -0.160324 0.151665 -0.123194 0.185553 0.0830964
internal_count=5634 3358 2276 2358 1000 1815 1066
shrinkage=0.1


Tree=43
num_leaves=5
num_cat=0
split_feature=19 21 7 3
split_gain=13.4171 12.2291 12.0591 4.42641
threshold=-1.2570844018187501 1.0000000180025095e-35 1.0000000180025095e-35 1.0000000180025095e-35
decision_type=2 2 2 2
left_child=-1 2 -2 -4
right_child=1 -3 3 -5
leaf_value=0.021536600345037092 -0.023178913499948894 0.013076731906928724 0.010897988407462277 -0.0095887436284375818
leaf_count=499 2625 846 952 712
internal_value=0 -0.0664725 -0.13052 0.0335799
internal_count=5634 5135 4289 1664
shrinkage=0.1


Tree=44
num_leaves=6
num_cat=0
split_feature=11 20 3 6 4
split_gain=12.4626 8.85277 9.96588 6.16342 1.09108
threshold=1.0000000180025095e-35 -1.3157009355504516 1.0000000180025095e-35 1.0000000180025095e-35 1.0000000180025095e-35
decision_type=2 2 2 2 2
left_child=1 -1 3 4 -3
right_child=-2 2 -4 -5 -6
leaf_value=-0.015217972581018591 -0.024975993255837728 0.022738815038503793 -0.0091908552603279445 -0.0043153277534511685 0.0054094339726611183
leaf_count=745 1336 1335 1032 556 630
internal_value=0 0.0421297 0.0868748 0.149476 0.195015
internal_count=5634 4298 3553 2521 1965
shrinkage=0.1


Tree=45
num_leaves=6
num_cat=0
split_feature=19 21 7 19 20
split_gain=11.7276 10.3363 10.3204 3.80193 0.560034
threshold=-1.2570844018187501 1.0000000180025095e-35 1.0000000180025095e-35 0.94181523906288855 0.81306102166235195
decision_type=2 2 2 2 2
left_child=-1 2 -2 4 -4
right_child=1 -3 3 -5 -6
leaf_value=0.020131034643169666 -0.021616493994930555 0.011879226359418663 0.00090835936256733875 -0.0098392006461807454 0.012270679291629167
leaf_count=499 2625 846 497 657 510
internal_value=0 -0.0626838 -0.121859 0.0303051 0.0948384
internal_count=5634 5135 4289 1664 1007
shrinkage=0.1


Tree=46
num_leaves=8
num_cat=0
split_feature=19 20 18 10 19 0 20
split_gain=11.6122 11.8515 4.28935 1.59612 1.45986 0.36417 0.39156
threshold=0.45317087442252435 -1.4619390715650706 1.0000000180025095e-35 1.0000000180025095e-35 -0.76844003717838605 1.0000000180025095e-35 0.15498940959656718
decision_type=2 2 2 2 2 2 2
left_child=1 -1 4 -2 -3 6 -4
right_child=3 2 5 -5 -6 -7 -8
leaf_value=-0.017708577820304074 -0.021209024718950996 0.0046884475112904511 0.010366914808360583 -0.0012161279955046197 -0.0080948466141821922 0.020679904450166969 0.0015324462894823411
leaf_count=675 1432 477 527 612 495 839 577
internal_value=0 0.0604403 0.116269 -0.173513 -0.0149612 0.163097 0.0746466
internal_count=5634 3590 2915 2044 972 1943 1104
shrinkage=0.1


Tree=47
num_leaves=8
num_cat=0
split_feature=19 7 6 0 19 19 14
split_gain=10.4614 8.96411 4.43397 2.97029 6.37752 1.94576 0.179099
threshold=-1.2163640380987197 1.0000000180025095e-35 1.0000000180025095e-35 1.0000000180025095e-35 0.20884869210234222 1.0639763302229797 1.0000000180025095e-35
decision_type=2 2 2 2 2 2 2
left_child=-1 3 6 -2 -5 -4 -3
right_child=1 2 5 4 -6 -7 -8
leaf_value=0.016871385979655013 -0.021068285725678204 0.0028743000764252765 0.0028118575723211654 0.010411014858748888 -0.017157487784951592 -0.014439437331712532 0.014055739171185209
leaf_count=696 1824 526 475 513 523 485 592
internal_value=0 -0.0647676 0.0505252 -0.155804 -0.0207608 -0.0725889 0.119608
internal_count=5634 4938 2078 2860 1036 960 1118
shrinkage=0.1


Tree=48
num_leaves=8
num_cat=0
split_feature=18 6 19 17 19 19 20
split_gain=10.0431 8.77329 3.46709 2.45688 1.3102 0.189079 2.37493
threshold=1.0000000180025095e-35 1.0000000180025095e-35 -0.60555858229826465 1.0000000180025095e-35 0.69749305674270656 -1.0942029469386287 0.46574544862763206
decision_type=2 2 2 2 2 2 2
left_child=2 3 -1 5 -3 -2 -7
right_child=1 4 -4 -5 -6 6 -8
leaf_value=-0.0014376716899764481 0.021473024991617982 -0.00022909441201367575 -0.021973213621631019 -0.001357643924621837 -0.016373868490919274 -0.0030940298519323128 0.013236466460352864
leaf_count=861 480 469 1415 543 531 594 741
internal_value=0 0.0674209 -0.137883 0.131102 -0.108357 0.160444 0.0809202
internal_count=5634 3358 2276 2358 1000 1815 1335
shrinkage=0.1


Tree=49
num_leaves=7
num_cat=0
split_feature=20 3 6 19 19 19
split_gain=9.77218 13.3835 6.73648 2.97618 1.00931 0.748676
threshold=-1.1844189725373282 1.0000000180025095e-35 1.0000000180025095e-35 0.37173014698246371 -1.0942029469386287 -0.3612363999780826
decision_type=2 2 2 2 2 2
left_child=-1 2 4 -3 -2 -6
right_child=1 3 -4 -5 5 -7
leaf_value=-0.019243208466144444 0.024242708296071332 -0.00018619362497218175 -0.0058638487438729368 -0.021369800162179806 0.0013840640583761283 0.011966041093247675
leaf_count=1289 605 652 741 965 622 760
internal_value=0 0.0440121 0.123748 -0.137931 0.174884 0.0847588
internal_count=5634 4345 2728 1617 1987 1382
shrinkage=0.1


Tree=50
num_leaves=7
num_cat=0
split_feature=11 21 20 3 19 19
split_gain=9.06482 6.41829 5.68009 5.31426 3.99191 1.59082
threshold=1.0000000180025095e-35 1.0000000180025095e-35 -1.1844189725373282 1.0000000180025095e-35 -1.0127622194985679 -0.11691421765790057
decision_type=2 2 2 2 2 2
left_child=1 2 -1 4 -4 -6
right_child=-2 -3 3 -5 5 -7
leaf_value=-0.016460625901292204 -0.021843297848504226 0.01661071895959013 0.017686449443258329 -0.0099535595547848195 -0.0060789534508506275 0.0061787330143879418
leaf_count=765 1336 798 645 863 641 586
internal_value=0 0.0344001 -0.0196842 0.0315152 0.0881377 -0.00524813
internal_count=5634 4298 3500 2735 1872 1227
shrinkage=0.1


Tree=51
num_leaves=8
num_cat=0
split_feature=19 20 3 0 20 19 4
split_gain=8.58197 7.65739 6.74373 5.02213 3.95549 2.95036 0.642725
threshold=-1.2570844018187501 -1.1844189725373282 1.0000000180025095e-35 1.0000000180025095e-35 -0.15576662943449801 0.37173014698246371 1.0000000180025095e-35
decision_type=2 2 2 2 2 2 2
left_child=-1 -2 3 4 -3 -4 -5
right_child=1 2 5 6 -6 -7 -8
leaf_value=0.017236416550286328 -0.023429300672180381 0.0084649237143296138 0.00069917720562057964 0.01746705462317345 -0.011533171244447018 -0.020149665664477501 0.0031195867203612938
leaf_count=499 1125 479 615 672 717 965 562
internal_value=0 -0.0547176 -0.00195837 0.0630169 -0.0396647 -0.127341 0.142343
internal_count=5634 5135 4010 2430 1196 1580 1234
shrinkage=0.1


Tree=52
num_leaves=8
num_cat=0
split_feature=18 6 19 17 19 8 20
split_gain=7.99466 6.99265 2.76962 1.91985 1.12334 0.379055 0.313576
threshold=1.0000000180025095e-35 1.0000000180025095e-35 -0.60555858229826465 1.0000000180025095e-35 0.69749305674270656 1.0000000180025095e-35 0.18656355259972338
decision_type=2 2 2 2 2 2 2
left_child=2 3 -1 5 -3 6 -2
right_child=1 4 -4 -5 -6 -7 -8
leaf_value=-0.0014191402522449651 0.00052681928223646248 -0.00014691471436144456 -0.020007085223557861 -0.001247837584115675 -0.015053065799718443 0.018128763574540015 0.0081770777205894887
leaf_count=861 576 469 1415 543 531 760 479
internal_value=0 0.0584001 -0.125961 0.115521 -0.0988168 0.141512 0.0592085
internal_count=5634 3358 2276 2358 1000 1815 1055
shrinkage=0.1


Tree=53
num_leaves=7
num_cat=0
split_feature=19 7 19 0 19 8
split_gain=7.72125 7.18233 3.23191 2.25808 5.47478 1.36092
threshold=-1.2570844018187501 1.0000000180025095e-35 1.1861374213830709 1.0000000180025095e-35 0.20884869210234222 1.0000000180025095e-35
decision_type=2 2 2 2 2 2
left_child=-1 3 5 -2 -5 -3
right_child=1 2 -4 4 -6 -7
leaf_value=0.016282217744661435 -0.017666068630870814 -0.00084067812275261567 -0.0083725098161302313 0.009613375300502866 -0.015865427102452489 0.012689835548467476
leaf_count=499 1958 478 630 539 523 1007
internal_value=0 -0.0528197 0.0498931 -0.131365 -0.0159675 0.0932548
internal_count=5634 5135 2115 3020 1062 1485
shrinkage=0.1


Tree=54
num_leaves=7
num_cat=0
split_feature=21 2 19 3 20 19
split_gain=7.4859 7.31523 3.0534 2.59803 1.78567 1.09546
threshold=1.0000000180025095e-35 1.0000000180025095e-35 -0.56483821857823424 1.0000000180025095e-35 -1.1844189725373282 -0.84988076461844675
decision_type=2 2 2 2 2 2
left_child=1 2 4 5 -1 -3
right_child=-2 3 -4 -5 -6 -7
leaf_value=-0.010495074486326764 0.013604875849050655 0.013113376753787943 -0.023597489662320663 -0.0068290687428847448 0.003338729369748673 0.0010995113089834526
leaf_count=549 913 485 1743 524 609 811
internal_value=0 -0.0592636 -0.149607 0.0398908 -0.0385999 0.0829166
internal_count=5634 4721 2901 1820 1158 1296
shrinkage=0.1


Tree=55
num_leaves=6
num_cat=0
split_feature=11 21 7 19 4
split_gain=7.00318 4.75156 5.85534 4.50765 0.972536
threshold=1.0000000180025095e-35 1.0000000180025095e-35 1.0000000180025095e-35 -1.1349233106586591 1.0000000180025095e-35
decision_type=2 2 2 2 2
left_child=1 2 3 -1 -4
right_child=-2 -3 4 -5 -6
leaf_value=0.0034308347869958472 -0.019619276645730294 0.014177607818959074 0.012317620591171306 -0.015670977568509534 -1.6339092188516987e-05
leaf_count=691 1336 798 686 1618 505
internal_value=0 0.0285122 -0.0182927 -0.0871072 0.088984
internal_count=5634 4298 3500 2309 1191
shrinkage=0.1


Tree=56
num_leaves=7
num_cat=0
split_feature=19 20 21 19 14 19
split_gain=6.61536 5.85333 4.63783 2.85269 1.36217 0.21085
threshold=-1.2570844018187501 0.96345365017738605 1.0000000180025095e-35 0.4938912381425547 1.0000000180025095e-35 -0.80916040089841645
decision_type=2 2 2 2 2 2
left_child=-1 2 4 -3 5 -2
right_child=1 3 -4 -5 -6 -7
leaf_value=0.015071251611848017 -0.0053429044789231701 0.014347825815082102 0.0056861588358912887 -0.0036789004404015157 -0.0037986665598343326 -0.021100741753990748
leaf_count=499 599 472 533 692 874 1965
internal_value=0 -0.0492992 -0.101643 0.0724794 -0.141735 -0.18044
internal_count=5634 5135 3971 1164 3438 2564
shrinkage=0.1


Tree=57
num_leaves=6
num_cat=0
split_feature=11 20 3 19 8
split_gain=6.28051 4.37671 4.5184 4.38591 2.12879
threshold=1.0000000180025095e-35 -1.4619390715650706 1.0000000180025095e-35 -1.0942029469386287 1.0000000180025095e-35
decision_type=2 2 2 2 2
left_child=1 -1 3 -3 -5
right_child=-2 2 -4 4 -6
leaf_value=-0.012015494322886341 -0.018614403312006318 0.019657743276908418 -0.006478027436090078 -0.0049139863017764115 0.0076010618781935926
leaf_count=605 1336 750 1032 964 947
internal_value=0 0.0276558 0.0572162 0.0984538 0.0195559
internal_count=5634 4298 3693 2661 1911
shrinkage=0.1


Tree=58
num_leaves=8
num_cat=0
split_feature=18 6 19 17 19 0 19
split_gain=6.11363 5.69534 1.82623 1.35219 0.902739 0.242311 1.95235
threshold=1.0000000180025095e-35 1.0000000180025095e-35 -0.60555858229826465 1.0000000180025095e-35 0.69749305674270656 1.0000000180025095e-35 -0.89060112833847704
decision_type=2 2 2 2 2 2 2
left_child=2 3 -1 5 -3 6 -2
right_child=1 4 -4 -5 -6 -7 -8
leaf_value=-0.001692906873328493 0.010587194080820208 -0.00025165799241881501 -0.017369295812712453 -0.0008250170559638741 -0.013837872940313002 0.015492382650590615 -0.0045314015303523116
leaf_count=861 485 469 1415 543 531 851 479
internal_value=0 0.050483 -0.112065 0.102399 -0.0916776 0.124148 0.0495758
internal_count=5634 3358 2276 2358 1000 1815 964
shrinkage=0.1


Tree=59
num_leaves=7
num_cat=0
split_feature=20 3 6 19 8 19
split_gain=5.57739 7.21555 4.33029 2.37448 0.867806 1.35381
threshold=-1.1844189725373282 1.0000000180025095e-35 1.0000000180025095e-35 0.37173014698246371 1.0000000180025095e-35 -1.0534825832185983
decision_type=2 2 2 2 2 2
left_child=-1 2 4 -3 5 -2
right_child=1 3 -4 -5 -6 -7
leaf_value=-0.015117744261665046 0.010265302411695877 0.00080546699595468853 -0.0054251219590860248 -0.017461262428339439 0.017608154460672921 -0.0018906390297300461
leaf_count=1289 475 652 741 965 884 628
internal_value=0 0.0305471 0.0892064 -0.10512 0.130927 0.0517724
internal_count=5634 4345 2728 1617 1987 1103
shrinkage=0.1


Tree=60
num_leaves=8
num_cat=0
split_feature=19 0 19 1 20 20 20
split_gain=5.48015 5.15367 4.36488 3.39227 4.70764 2.40883 0.228283
threshold=-1.2570844018187501 1.0000000180025095e-35 0.94181523906288855 1.0000000180025095e-35 -0.29203398344811998 0.55382068963643682 0.47239263662829661
decision_type=2 2 2 2 2 2 2
left_child=-1 3 5 6 -5 -3 -2
right_child=1 2 -4 4 -6 -7 -8
leaf_value=0.013614586617484069 -0.021115753901088656 -0.0022770401567548978 -0.0095137294990878286 0.010244519808010458 -0.013319102131339822 0.014725204441062742 -0.0054126543510341065
leaf_count=499 1048 605 913 731 489 782 567
internal_value=0 -0.0465419 0.0386153 -0.116092 0.00513224 0.0979949 -0.175025
internal_count=5634 5135 2300 2835 1220 1387 1615
shrinkage=0.1


Tree=61
num_leaves=7
num_cat=0
split_feature=18 19 17 0 20 19
split_gain=5.02039 4.81292 3.13451 1.77113 3.32158 1.5869
threshold=1.0000000180025095e-35 1.0639763302229797 1.0000000180025095e-35 1.0000000180025095e-35 -0.31529914145044585 -0.60555858229826465
decision_type=2 2 2 2 2 2
left_child=5 2 3 4 -2 -1
right_child=1 -3 -4 -5 -6 -7
leaf_value=-0.0015449549639600373 0.012493360579588334 -0.011323594137125496 -0.0047819411938443603 0.017175526187928693 -0.0058440157254890067 -0.016185552499280071
leaf_count=861 479 743 597 873 666 1415
internal_value=0 0.0438203 0.0823216 0.116843 0.0302969 -0.104037
internal_count=5634 3358 2615 2018 1145 2276
shrinkage=0.1


Tree=62
num_leaves=7
num_cat=0
split_feature=19 20 21 19 14 19
split_gain=4.92909 4.66409 3.71136 1.87125 0.850565 0.0103109
threshold=-1.2570844018187501 0.96345365017738605 1.0000000180025095e-35 0.4938912381425547 1.0000000180025095e-35 -0.80916040089841645
decision_type=2 2 2 2 2 2
left_child=-1 2 4 -3 5 -2
right_child=1 3 -4 -5 -6 -7
leaf_value=0.012816299212461912 -0.0050262910481112758 0.012096467485431044 0.0050123350996547685 -0.0027149031863422232 -0.0038341305292664812 -0.018624814759761483
leaf_count=499 599 472 533 692 874 1965
internal_value=0 -0.0452639 -0.092317 0.0640608 -0.128538 -0.160952
internal_count=5634 5135 3971 1164 3438 2564
shrinkage=0.1


Tree=63
num_leaves=7
num_cat=0
split_feature=20 3 6 19 4 19
split_gain=4.65064 5.96335 3.61461 2.03169 0.973875 1.18844
threshold=-1.1844189725373282 1.0000000180025095e-35 1.0000000180025095e-35 0.37173014698246371 1.0000000180025095e-35 -1.0942029469386287
decision_type=2 2 2 2 2 2
left_child=-1 2 4 -3 5 -2
right_child=1 3 -4 -5 -6 -7
leaf_value=-0.013964730778212159 0.020315546176301179 0.0007763441460746026 -0.0050429993911933584 -0.016150463957656288 0.002274123532791333 0.0045375157485825377
leaf_count=1289 505 652 741 965 682 800
internal_value=0 0.0271931 0.0805859 -0.0966788 0.118801 0.146215
internal_count=5634 4345 2728 1617 1987 1305
shrinkage=0.1


Tree=64
num_leaves=8
num_cat=0
split_feature=11 21 7 4 18 20 20
split_gain=4.38546 3.14629 4.54813 0.732594 0.566856 0.359032 0.316793
threshold=1.0000000180025095e-35 1.0000000180025095e-35 1.0000000180025095e-35 1.0000000180025095e-35 1.0000000180025095e-35 -0.63602596248250753 -0.31529914145044585
decision_type=2 2 2 2 2 2 2
left_child=1 2 4 -4 5 -1 -6
right_child=-2 -3 3 -5 6 -7 -8
leaf_value=-0.014175946219833913 -0.016021998736011508 0.011315066291491342 0.010723831306046873 -2.6675630471439241e-05 0.0013941941817200044 -0.0020776460000077965 -0.0046058636700600768
leaf_count=626 1336 798 686 505 535 468 680
internal_value=0 0.020754 -0.0174918 0.0775155 -0.078741 -0.113579 -0.0254522
internal_count=5634 4298 3500 1191 2309 1094 1215
shrinkage=0.1


Tree=65
num_leaves=9
num_cat=0
split_feature=19 20 21 19 20 20 20 20
split_gain=4.36596 4.14768 2.94903 1.50761 0.77437 4.3486 0.562856 0.0153196
threshold=-1.2570844018187501 0.96345365017738605 1.0000000180025095e-35 1.0232559665029495 -1.1844189725373282 -0.20229694543914942 0.30122754561118575 0.65020491564607175
decision_type=2 2 2 2 2 2 2 2
left_child=-1 2 4 -3 -2 -6 -7 -8
right_child=1 3 -4 -5 5 6 7 -9
leaf_value=0.012071418059817844 -0.019065515384294185 0.0099381409056091344 0.0041438433381840323 -0.0037665781857234614 0.0070421272942437045 -0.017504512652991137 -0.0012396521368242897 -0.0054262613382321202
leaf_count=499 1080 690 533 474 727 563 595 473
internal_value=0 -0.0428777 -0.0874423 0.0603726 -0.119684 -0.0635085 -0.124136 -0.0444739
internal_count=5634 5135 3971 1164 3438 2358 1631 1068
shrinkage=0.1


Tree=66
num_leaves=7
num_cat=0
split_feature=19 0 19 1 20 20
split_gain=3.99257 3.92716 3.04988 2.82643 3.93925 2.23358
threshold=-1.2570844018187501 1.0000000180025095e-35 1.1046966939430101 1.0000000180025095e-35 -0.29203398344811998 0.55382068963643682
decision_type=2 2 2 2 2 2
left_child=-1 3 5 -2 -5 -3
right_child=1 2 -4 4 -6 -7
leaf_value=0.01145923228429053 -0.01571975822077689 -0.0030440270085155775 -0.00873099955223775 0.0094887919662653766 -0.012124342652372114 0.012552542205662688
leaf_count=499 1615 646 790 731 489 864
internal_value=0 -0.0419573 0.0329321 -0.102947 0.00673522 0.078788
internal_count=5634 5135 2300 2835 1220 1510
shrinkage=0.1


Tree=67
num_leaves=8
num_cat=0
split_feature=17 19 0 19 20 20 5
split_gain=3.92825 3.46322 3.56887 2.70209 3.35496 1.20719 0.682353
threshold=1.0000000180025095e-35 1.1046966939430101 1.0000000180025095e-35 -1.2163640380987197 -0.49809681146871937 0.55382068963643682 1.0000000180025095e-35
decision_type=2 2 2 2 2 2 2
left_child=1 2 3 -1 -5 -4 -2
right_child=6 -3 5 4 -6 -7 -8
leaf_value=0.008123417277253419 -0.013602998074159498 -0.010804995954542162 0.0010539164204924427 0.006468076160059873 -0.012543287524277739 0.016900510593506921 -0.00060678641253027535
leaf_count=480 1087 719 487 655 900 708 598
internal_value=0 0.0304343 0.0591224 -0.0106604 -0.0654109 0.134237 -0.109622
internal_count=5634 3949 3230 2035 1555 1195 1685
shrinkage=0.1


Tree=68
num_leaves=6
num_cat=0
split_feature=11 21 7 19 4
split_gain=3.66073 2.50907 3.91945 1.79085 0.655922
threshold=1.0000000180025095e-35 1.0000000180025095e-35 1.0000000180025095e-35 -1.1349233106586591 1.0000000180025095e-35
decision_type=2 2 2 2 2
left_child=1 2 3 -1 -4
right_child=-2 -3 4 -5 -6
leaf_value=0.00098026588795272276 -0.014847743449796048 0.010036163339485945 0.010000834759110991 -0.01172746009970168 -9.8838463511629216e-05
leaf_count=691 1336 798 686 1618 505
internal_value=0 0.0178094 -0.0163506 -0.0733774 0.0718793
internal_count=5634 4298 3500 2309 1191
shrinkage=0.1


Tree=69
num_leaves=7
num_cat=0
split_feature=18 6 19 19 7 19
split_gain=3.64233 3.78735 1.20826 0.690616 1.57192 0.621333
threshold=1.0000000180025095e-35 1.0000000180025095e-35 -0.56483821857823424 -1.0942029469386287 1.0000000180025095e-35 0.69749305674270656
decision_type=2 2 2 2 2 2
left_child=2 3 -1 -2 -5 -3
right_child=1 5 -4 4 -6 -7
leaf_value=-0.0013803784057713577 0.012725411592430284 -0.00032964949336487868 -0.014233130624295647 -0.0031756411497687619 0.0083941856312455179 -0.011825171488318334
leaf_count=894 565 469 1382 980 813 531
internal_value=0 0.0368207 -0.0900723 0.0797433 0.0337927 -0.0789581
internal_count=5634 3358 2276 2358 1793 1000
shrinkage=0.1


Tree=70
num_leaves=8
num_cat=0
split_feature=20 3 6 19 4 19 19
split_gain=3.35088 4.63524 2.78986 1.73311 0.870812 1.06486 0.133733
threshold=-1.1844189725373282 1.0000000180025095e-35 1.0000000180025095e-35 0.37173014698246371 1.0000000180025095e-35 -1.0942029469386287 -0.60555858229826465
decision_type=2 2 2 2 2 2 2
left_child=6 2 4 -3 5 -2 -1
right_child=1 3 -4 -5 -6 -7 -8
leaf_value=-0.0030876136698215371 0.01811982924906649 0.00079956178369563851 -0.0045806517555271034 -0.014831339309430244 0.001674867131909041 0.0037754100756620876 -0.015332007260467295
leaf_count=551 505 652 741 965 682 800 738
internal_value=0 0.0216468 0.0689951 -0.0878491 0.102746 0.128335 -0.121149
internal_count=5634 4345 2728 1617 1987 1305 1289
shrinkage=0.1


Tree=71
num_leaves=8
num_cat=0
split_feature=17 19 0 19 20 20 5
split_gain=3.18997 2.83335 3.19048 2.11207 3.21615 1.02232 0.671439
threshold=1.0000000180025095e-35 1.1046966939430101 1.0000000180025095e-35 -1.2163640380987197 -0.34188789345310372 0.65020491564607175 1.0000000180025095e-35
decision_type=2 2 2 2 2 2 2
left_child=1 2 3 -1 -5 -4 -2
right_child=6 -3 5 4 -6 -7 -8
leaf_value=0.0069291156790613709 -0.012627760111335169 -0.0099023415775912407 0.0012996161689392707 0.0057579606444723777 -0.012566105995491746 0.015831270056931083 -0.00027445234372999066
leaf_count=480 1087 719 531 757 798 664 598
internal_value=0 0.0265715 0.0526188 -0.0128346 -0.0607649 0.123797 -0.100148
internal_count=5634 3949 3230 2035 1555 1195 1685
shrinkage=0.1


Tree=72
num_leaves=7
num_cat=0
split_feature=20 4 8 3 20 0
split_gain=3.15717 4.19043 1.25419 0.858039 0.269339 0.147076
threshold=-1.1844189725373282 1.0000000180025095e-35 1.0000000180025095e-35 1.0000000180025095e-35 0.746589141655707 1.0000000180025095e-35
decision_type=2 2 2 2 2 2
left_child=-1 2 -2 4 -3 -4
right_child=1 3 5 -5 -6 -7
leaf_value=-0.011820998444392607 0.0015403568798641335 -0.0034844053227535763 0.0031534226828402521 -0.011345709217023752 0.0019660893048123163 0.014575824651657632
leaf_count=1289 1335 539 514 904 507 546
internal_value=0 0.020618 0.0757901 -0.0657517 -0.00908758 0.121771
internal_count=5634 4345 2395 1950 1046 1060
shrinkage=0.1


Tree=73
num_leaves=7
num_cat=0
split_feature=18 6 19 19 19 7
split_gain=3.01771 3.15855 1.01587 0.579887 0.550448 1.26481
threshold=1.0000000180025095e-35 1.0000000180025095e-35 -0.56483821857823424 0.69749305674270656 -1.0942029469386287 1.0000000180025095e-35
decision_type=2 2 2 2 2 2
left_child=2 4 -1 -3 -2 -6
right_child=1 3 -4 -5 5 -7
leaf_value=-0.0012902589101749162 0.011482131571080271 -0.00017777547315149663 -0.013137881626369662 -0.011109107824708267 -0.0028301088116433224 0.0075662651611540666
leaf_count=894 565 469 1382 531 980 813
internal_value=0 0.0327842 -0.0831241 -0.0730182 0.072126 0.0307372
internal_count=5634 3358 2276 1000 2358 1793
shrinkage=0.1


Tree=74
num_leaves=7
num_cat=0
split_feature=20 3 19 18 19 19
split_gain=2.88756 3.68768 2.89118 1.56542 1.54497 0.7115
threshold=-1.4619390715650706 1.0000000180025095e-35 -1.0942029469386287 1.0000000180025095e-35 0.94181523906288855 0.12740796466228152
decision_type=2 2 2 2 2 2
left_child=-1 2 -2 -4 -3 -5
right_child=1 4 3 5 -6 -7
leaf_value=-0.012462466088253386 0.013866524646898594 -0.00012850782428306065 -0.0076621149112796666 -0.00062546736143903625 -0.015191223003225843 0.0076418451260764284
leaf_count=897 754 917 704 898 702 762
internal_value=0 0.0168228 0.0575505 0.000561471 -0.0814652 0.0361701
internal_count=5634 4737 3118 2364 1619 1660
shrinkage=0.1


Tree=75
num_leaves=7
num_cat=0
split_feature=21 2 7 19 19 20
split_gain=2.80643 4.00567 1.71243 0.811491 0.626178 0.108034
threshold=1.0000000180025095e-35 1.0000000180025095e-35 1.0000000180025095e-35 -0.56483821857823424 -1.0534825832185983 1.176994564698733
decision_type=2 2 2 2 2 2
left_child=1 3 -3 4 -1 -4
right_child=-2 2 5 -5 -6 -7
leaf_value=-0.0065113823051922079 0.0079359303351436081 -0.0035704082944265185 0.009670752161020044 -0.016217847989483555 0.002297507845733588 0.0017030350589707151
leaf_count=636 913 786 526 1743 522 508
internal_value=0 -0.0417277 0.0318327 -0.111002 -0.0389517 0.0813375
internal_count=5634 4721 1820 2901 1158 1034
shrinkage=0.1


Tree=76
num_leaves=8
num_cat=0
split_feature=19 20 21 19 15 19 20
split_gain=2.7851 2.55868 1.83708 0.920652 0.811833 2.00984 1.18737
threshold=-1.2570844018187501 0.96345365017738605 1.0000000180025095e-35 0.4938912381425547 1.0000000180025095e-35 0.290289419542403 -0.28206320144712338
decision_type=2 2 2 2 2 2 2
left_child=-1 2 4 -3 5 6 -2
right_child=1 3 -4 -5 -6 -7 -8
leaf_value=0.0095138546336552658 0.0072467470578580747 0.0085382786636349732 0.0031227181415285198 -0.0019131807392503586 -0.015526132254217194 -0.012964640255124685 -0.0034851118616878365
leaf_count=499 595 472 533 692 977 1057 809
internal_value=0 -0.0363246 -0.0715751 0.04555 -0.0973048 -0.044282 0.0110982
internal_count=5634 5135 3971 1164 3438 2461 1404
shrinkage=0.1


Tree=77
num_leaves=8
num_cat=0
split_feature=19 20 20 0 17 19 9
split_gain=2.51725 2.49391 2.77204 3.92963 2.24877 1.52826 0.476986
threshold=-1.2570844018187501 -1.1844189725373282 -0.20229694543914942 1.0000000180025095e-35 1.0000000180025095e-35 0.94181523906288855 1.0000000180025095e-35
decision_type=2 2 2 2 2 2 2
left_child=-1 -2 -3 6 5 -5 -4
right_child=1 2 3 4 -6 -7 -8
leaf_value=0.0090347896592061754 -0.014218686698287695 0.0094477786086752825 -0.00035289330015115719 0.01058446596801417 -0.0072550473741997499 -0.0033872752777607028 -0.013770790600746411
leaf_count=499 1125 824 504 924 514 517 727
internal_value=0 -0.0346955 -0.00397669 -0.0387133 0.0325008 0.0734638 -0.122608
internal_count=5634 5135 4010 3186 1955 1441 1231
shrinkage=0.1


Tree=78
num_leaves=7
num_cat=0
split_feature=11 20 4 19 9 19
split_gain=2.43872 1.62595 2.13712 1.21042 0.567424 0.0257215
threshold=1.0000000180025095e-35 -1.4619390715650706 1.0000000180025095e-35 -0.40195676369811301 1.0000000180025095e-35 -1.0942029469386287
decision_type=2 2 2 2 2 2
left_child=1 -1 3 5 -4 -3
right_child=-2 2 4 -5 -6 -7
leaf_value=-0.0078058406291995723 -0.012441733852803087 0.01150602466814332 0.0025508430672771081 -0.00093660606290270907 -0.0058023251353957628 0.00376299707029875
leaf_count=605 1336 706 495 861 853 778
internal_value=0 0.0129519 0.0314115 0.0676338 -0.0374981 0.0950971
internal_count=5634 4298 3693 2345 1348 1484
shrinkage=0.1


Tree=79
num_leaves=8
num_cat=0
split_feature=18 6 20 19 8 20 19
split_gain=2.28142 2.63765 0.910841 0.552341 0.480185 1.23055 0.479053
threshold=1.0000000180025095e-35 1.0000000180025095e-35 -0.63602596248250753 -0.3612363999780826 1.0000000180025095e-35 0.30122754561118575 0.69749305674270656
decision_type=2 2 2 2 2 2 2
left_child=2 4 -1 -4 5 -2 -3
right_child=1 6 3 -5 -6 -7 -8
leaf_value=-0.012136298703700551 -0.0035918997706490619 -0.00027861806523070724 0.0028778494524675734 -0.0050747758395174418 0.0093233823640728325 0.007224585936903314 -0.010394718779560205
leaf_count=1061 901 469 473 742 939 518 531
internal_value=0 0.0271626 -0.0741385 -0.0105572 0.0634851 0.0196392 -0.0691484
internal_count=5634 3358 2276 1215 2358 1419 1000
shrinkage=0.1


Tree=80
num_leaves=8
num_cat=0
split_feature=19 20 21 19 15 19 20
split_gain=2.27823 2.24041 1.55307 0.733255 0.703731 1.78379 1.10196
threshold=-1.2570844018187501 0.96345365017738605 1.0000000180025095e-35 0.4938912381425547 1.0000000180025095e-35 0.290289419542403 -0.28206320144712338
decision_type=2 2 2 2 2 2 2
left_child=-1 2 4 -3 5 6 -2
right_child=1 3 -4 -5 -6 -7 -8
leaf_value=0.0085064171510503602 0.0069807774440706506 0.0077961864083724757 0.0027887686086387246 -0.0016051603508913624 -0.014514418985400596 -0.012213958240353665 -0.0033612782196588819
leaf_count=499 595 472 533 692 977 1057 809
internal_value=0 -0.0341143 -0.0672068 0.0425976 -0.0909087 -0.0413434 0.0106895
internal_count=5634 5135 3971 1164 3438 2461 1404
shrinkage=0.1


Tree=81
num_leaves=8
num_cat=0
split_feature=17 19 0 20 20 5 20
split_gain=2.16675 2.05145 2.10479 1.82232 0.785117 0.675715 0.0332817
threshold=1.0000000180025095e-35 1.1046966939430101 1.0000000180025095e-35 -0.49809681146871937 0.65020491564607175 1.0000000180025095e-35 0.37434661361849525
decision_type=2 2 2 2 2 2 2
left_child=1 2 3 -1 -4 -2 -5
right_child=5 -3 4 6 -6 -7 -8
leaf_value=0.0059428515437140476 -0.011089141657698351 -0.0086391307983777112 0.00080130585905579816 -0.0071364976780353825 0.013101760302308571 0.00036339014477186084 -0.0016398269254311972
leaf_count=913 1087 719 531 643 664 598 479
internal_value=0 0.0207197 0.043143 -0.0104276 0.101039 -0.0845114 -0.0597851
internal_count=5634 3949 3230 2035 1195 1685 1122
shrinkage=0.1


Tree=82
num_leaves=8
num_cat=0
split_feature=19 8 4 14 19 0 3
split_gain=2.06965 2.00999 2.85481 0.893176 1.94432 0.390872 0.0342518
threshold=-1.2570844018187501 1.0000000180025095e-35 1.0000000180025095e-35 1.0000000180025095e-35 -0.80916040089841645 1.0000000180025095e-35 1.0000000180025095e-35
decision_type=2 2 2 2 2 2 2
left_child=-1 3 5 4 -2 -3 -4
right_child=1 2 6 -5 -6 -7 -8
leaf_value=0.008098923573714405 0.00071849325780682098 0.0012045119803093503 -0.0017484360470567642 -0.0007112196314431891 -0.015854838775896222 0.011561882520611693 -0.0076943144834677457
leaf_count=499 573 468 602 778 1657 533 524
internal_value=0 -0.0326503 0.0232661 -0.0753722 -0.106296 0.090326 -0.0607909
internal_count=5634 5135 2127 3008 2230 1001 1126
shrinkage=0.1


Tree=83
num_leaves=7
num_cat=0
split_feature=20 3 19 19 18 19
split_gain=2.06672 2.79385 2.17245 1.33602 1.18956 0.800634
threshold=-1.4619390715650706 1.0000000180025095e-35 -1.0942029469386287 0.94181523906288855 1.0000000180025095e-35 0.12740796466228152
decision_type=2 2 2 2 2 2
left_child=-1 2 -2 -3 -4 -6
right_child=1 3 4 -5 5 -7
leaf_value=-0.010738801807948953 0.011942974112105213 6.9713515762857337e-05 -0.0067886215563466943 -0.013863715480852573 -0.0011925802298214613 0.0073886102042249619
leaf_count=897 754 917 704 702 898 762
internal_value=0 0.0131793 0.0488647 -0.072652 -0.00048357 0.0307583
internal_count=5634 4737 3118 1619 2364 1660
shrinkage=0.1


Tree=84
num_leaves=6
num_cat=0
split_feature=21 2 7 8 20
split_gain=1.93365 3.1549 1.39102 0.642779 0.105472
threshold=1.0000000180025095e-35 1.0000000180025095e-35 1.0000000180025095e-35 1.0000000180025095e-35 1.176994564698733
decision_type=2 2 2 2 2
left_child=1 3 -3 -1 -4
right_child=-2 2 4 -5 -6
leaf_value=-0.011667794286799768 0.0064727714998826305 -0.0032123570954106298 0.0088169685320817186 -0.00027011881130256909 0.0014661113729168959
leaf_count=2199 913 786 526 702 508
internal_value=0 -0.036173 0.0290283 -0.098367 0.0736889
internal_count=5634 4721 1820 2901 1034
shrinkage=0.1


Tree=85
num_leaves=8
num_cat=0
split_feature=11 19 20 1 20 20 20
split_gain=1.91005 1.30531 1.7515 2.02324 3.24918 0.723066 2.58008
threshold=1.0000000180025095e-35 -1.2570844018187501 1.0224474436832833 1.0000000180025095e-35 -0.29203398344811998 0.19321074060038773 0.69008804365005871
decision_type=2 2 2 2 2 2 2
left_child=1 -1 3 5 -5 -3 -7
right_child=-2 2 -4 4 -6 6 -8
leaf_value=0.0081227418534410532 -0.011107527613752027 -0.013329454439240794 0.0063380797410772143 0.011014947892415758 -0.0081118877663152299 0.0051136497316227533 -0.010490913384076709
leaf_count=490 1336 698 700 705 551 625 529
internal_value=0 0.0112842 -0.0101442 -0.0388395 0.0358459 -0.079318 -0.0286601
internal_count=5634 4298 3808 3108 1256 1852 1154
shrinkage=0.1


Tree=86
num_leaves=8
num_cat=0
split_feature=19 20 4 10 8 19 3
split_gain=1.808 2.03268 1.80509 1.67793 0.607552 0.524003 0.00826192
threshold=0.45317087442252435 -1.4619390715650706 1.0000000180025095e-35 1.0000000180025095e-35 1.0000000180025095e-35 -1.0942029469386287 1.0000000180025095e-35
decision_type=2 2 2 2 2 2 2
left_child=1 -1 4 6 5 -3 -2
right_child=3 2 -4 -5 -6 -7 -8
leaf_value=-0.0082660809991224257 -0.0029938378907513039 0.0057010212239570297 -0.0036005337447051161 0.0031041344334350606 0.011229302363794009 -0.0014831201275414881 -0.014476548221855918
leaf_count=675 773 552 829 612 712 822 659
internal_value=0 0.0185198 0.0423656 -0.0781119 0.0735404 0.0257326 -0.122224
internal_count=5634 3590 2915 2044 2086 1374 1432
shrinkage=0.1


Tree=87
num_leaves=7
num_cat=0
split_feature=19 20 1 20 20 20
split_gain=1.70048 1.58419 1.22499 4.30456 1.9795 1.90565
threshold=-1.2570844018187501 1.1071990906917557 1.0000000180025095e-35 -0.20229694543914942 0.19321074060038773 0.69008804365005871
decision_type=2 2 2 2 2 2
left_child=-1 2 4 -4 -2 -6
right_child=1 -3 3 -5 5 -7
leaf_value=0.0072897562260526294 -0.016464733751747087 0.0044507740320032683 0.009967536219984488 -0.011322418128443434 0.004940330206252592 -0.0080327334654186049
leaf_count=499 1183 865 864 892 643 688
internal_value=0 -0.0303921 -0.0539065 0.00930598 -0.0829081 -0.0190466
internal_count=5634 5135 4270 1756 2514 1331
shrinkage=0.1


Tree=88
num_leaves=9
num_cat=0
split_feature=19 21 7 20 3 20 20 18
split_gain=1.67571 2.09905 2.01517 0.752798 0.416656 0.390995 0.275811 0.166005
threshold=1.1046966939430101 1.0000000180025095e-35 1.0000000180025095e-35 -0.47815524746672583 1.0000000180025095e-35 0.32116910961317952 0.96345365017738605 1.0000000180025095e-35
decision_type=2 2 2 2 2 2 2 2
left_child=1 2 3 7 -2 -5 -4 -1
right_child=4 -3 6 5 -6 -7 -8 -9
leaf_value=-0.011528521780861297 -0.00029722381628908802 0.0090159255566609944 0.00027529895630958343 0.0026118032774062553 -0.012334251853649014 -0.0037141885639083885 0.006967317508527345 -0.0018557063461879363
leaf_count=896 575 714 680 629 619 527 479 515
internal_value=0 0.0111459 -0.019786 -0.059657 -0.0962487 -0.00852909 0.0473952 -0.0959198
internal_count=5634 4440 3726 2567 1194 1156 1159 1411
shrinkage=0.1


Tree=89
num_leaves=8
num_cat=0
split_feature=19 0 12 1 19 20 20
split_gain=1.61738 1.45325 2.17303 2.57986 1.67054 1.61476 0.476497
threshold=-1.2570844018187501 1.0000000180025095e-35 1.0000000180025095e-35 1.0000000180025095e-35 -0.23907530881799161 1.055683383686606 -0.38675641245758913
decision_type=2 2 2 2 2 2 2
left_child=-1 2 3 -2 -3 -6 -5
right_child=1 4 -4 6 5 -7 -8
leaf_value=0.0070592621054059211 -0.015312598878859836 0.0078293309398336994 0.0053487455939879658 0.0045296522066400856 -0.009508014671727967 0.0037329948838237207 -0.003302973788440302
leaf_count=499 1298 667 593 472 975 658 472
internal_value=0 -0.0302387 -0.0677096 -0.0983504 0.0166996 -0.0369029 0.0131848
internal_count=5634 5135 2835 2242 2300 1633 944
shrinkage=0.1


Tree=90
num_leaves=10
num_cat=0
split_feature=19 18 10 20 20 9 19 20 3
split_gain=1.58427 1.68297 1.56576 0.597586 1.79567 0.524837 0.432639 0.0645241 0.0340919
threshold=0.45317087442252435 1.0000000180025095e-35 1.0000000180025095e-35 0.30122754561118575 -0.49809681146871937 1.0000000180025095e-35 -0.76844003717838605 -0.47150805946606139 1.0000000180025095e-35
decision_type=2 2 2 2 2 2 2 2 2
left_child=1 5 8 4 -3 -1 -5 -7 -2
right_child=2 3 -4 6 -6 7 -8 -9 -10
leaf_value=-0.0095246851189286982 -0.0027717915911629428 0.0072922227604340544 0.0030932603590207311 0.010650311473953768 -0.0067517370776526602 -0.0018529628845387854 0.001655741195969986 0.00082669709236517707 -0.013882732269165697
leaf_count=505 773 505 612 501 504 475 622 478 659
internal_value=0 0.0171256 -0.0735192 0.0508985 0.000991746 -0.0448414 0.0753049 -0.00608819 -0.116491
internal_count=5634 3590 2044 2132 1009 1458 1123 953 1432
shrinkage=0.1


Tree=91
num_leaves=9
num_cat=0
split_feature=19 21 7 15 20 3 20 20
split_gain=1.49738 1.86434 1.83977 0.811046 0.592468 0.398963 0.269388 0.234522
threshold=1.1046966939430101 1.0000000180025095e-35 1.0000000180025095e-35 1.0000000180025095e-35 -0.65430572948433485 1.0000000180025095e-35 0.32116910961317952 0.96345365017738605
decision_type=2 2 2 2 2 2 2 2
left_child=1 2 3 4 -1 -2 -6 -4
right_child=5 -3 7 -5 6 -7 -8 -9
leaf_value=-0.0057540750590318202 -0.00020776984899073346 0.008487216270117082 0.00033212235211143611 -0.01016201957436158 0.004341149326873287 -0.011790246286723436 -0.0013021862541312216 0.0065955469268094095
leaf_count=597 575 714 680 965 537 619 468 479
internal_value=0 0.0103722 -0.0188089 -0.0569825 -0.0109581 -0.0913489 0.0198569 0.0453798
internal_count=5634 4440 3726 2567 1602 1194 1005 1159
shrinkage=0.1


Tree=92
num_leaves=8
num_cat=0
split_feature=19 8 4 20 1 0 20
split_gain=1.50123 1.24748 2.32215 0.824747 1.25744 0.392071 0.152537
threshold=-1.2570844018187501 1.0000000180025095e-35 1.0000000180025095e-35 0.30122754561118575 1.0000000180025095e-35 1.0000000180025095e-35 1.1404350306950781
decision_type=2 2 2 2 2 2 2
left_child=-1 3 5 4 -2 -3 -4
right_child=1 2 6 -5 -6 -7 -8
leaf_value=0.0068135196124619549 -0.014339279130685875 0.00069173058795962185 -0.0077949006610248291 -0.00014752959010540972 -0.00053281235631852907 0.010170350413789218 -0.00093079014854642876
leaf_count=499 1230 468 589 837 941 533 537
internal_value=0 -0.0290827 0.0156578 -0.0628839 -0.0930423 0.0769941 -0.05912
internal_count=5634 5135 2127 3008 2171 1001 1126
shrinkage=0.1


Tree=93
num_leaves=7
num_cat=0
split_feature=17 19 0 20 19 20
split_gain=1.4639 1.44855 1.36295 1.9339 0.685888 0.610316
threshold=1.0000000180025095e-35 1.1046966939430101 1.0000000180025095e-35 -0.52468556347137718 -0.035473490217839881 0.65020491564607175
decision_type=2 2 2 2 2 2
left_child=1 2 3 -1 -2 -4
right_child=4 -3 5 -5 -6 -7
leaf_value=0.0065488503616089174 -0.0003140225276524229 -0.0074216421249707403 0.00036420340468811387 -0.0058212568066187201 -0.011044589791943416 0.010795093969176543
leaf_count=874 720 719 531 1161 965 664
internal_value=0 0.0160036 0.0350503 -0.00836235 -0.0711124 0.0817215
internal_count=5634 3949 3230 2035 1685 1195
shrinkage=0.1


Tree=94
num_leaves=7
num_cat=0
split_feature=19 20 20 4 19 20
split_gain=1.34658 1.7681 1.39017 1.58088 0.159347 0.764134
threshold=0.412450510702494 1.1686855796979023 -1.4619390715650706 1.0000000180025095e-35 -1.0942029469386287 -0.15576662943449801
decision_type=2 2 2 2 2 2
left_child=2 -2 -1 4 -4 -6
right_child=1 -3 3 -5 5 -7
leaf_value=-0.0068723716881544375 -0.011702792938929642 0.0033723635339154992 0.0088042388627207775 -0.0037688421516703409 0.0079923469841741285 -0.0011020383288144833
leaf_count=671 1576 522 710 805 475 875
internal_value=0 -0.0676772 0.01544 0.0353135 0.0647961 0.0282003
internal_count=5634 2098 3536 2865 2060 1350
shrinkage=0.1


Tree=95
num_leaves=8
num_cat=0
split_feature=17 19 16 19 0 20 19
split_gain=1.32194 1.30764 1.35544 1.31456 1.54731 1.75605 0.596844
threshold=1.0000000180025095e-35 1.1046966939430101 1.0000000180025095e-35 -1.2163640380987197 1.0000000180025095e-35 -0.34188789345310372 -0.035473490217839881
decision_type=2 2 2 2 2 2 2
left_child=1 2 3 -1 5 -5 -2
right_child=6 -3 -4 4 -6 -7 -8
leaf_value=0.0062655004102334586 -0.00035103920252549836 -0.0070510773420258931 0.0092443429923628594 0.0028690025774990129 0.0034568311873130076 -0.012918461850336 -0.010433737739073887
leaf_count=516 720 719 872 576 683 583 965
internal_value=0 0.015378 0.0334448 -0.00203637 -0.0359471 -0.0819844 -0.0674982
internal_count=5634 3949 3230 2358 1842 1159 1685
shrinkage=0.1


Tree=96
num_leaves=8
num_cat=0
split_feature=18 6 20 20 19 8 20
split_gain=1.27518 1.95043 0.685997 0.426219 0.292225 0.212482 0.982095
threshold=1.0000000180025095e-35 1.0000000180025095e-35 -0.63602596248250753 0.23309386860437478 0.69749305674270656 1.0000000180025095e-35 0.30122754561118575
decision_type=2 2 2 2 2 2 2
left_child=2 5 -1 -4 -3 6 -2
right_child=1 4 3 -5 -6 -7 -8
leaf_value=-0.009869005122033132 -0.0032024701776758807 -0.00059333788807306418 0.0034836137161743867 -0.0035034798248401058 -0.009103771340057602 0.0071654276312577651 0.0065108280656189597
leaf_count=1061 901 469 509 706 531 939 518
internal_value=0 0.019034 -0.0574788 -0.00487794 -0.0633138 0.0509156 0.0180878
internal_count=5634 3358 2276 1215 1000 2358 1419
shrinkage=0.1


Tree=97
num_leaves=7
num_cat=0
split_feature=11 21 7 20 20 4
split_gain=1.17495 0.80191 1.82763 0.33182 0.417583 0.252034
threshold=1.0000000180025095e-35 1.0000000180025095e-35 1.0000000180025095e-35 -0.47815524746672583 0.32116910961317952 1.0000000180025095e-35
decision_type=2 2 2 2 2 2
left_child=1 2 3 -1 -5 -4
right_child=-2 -3 5 4 -6 -7
leaf_value=-0.0077662798715456968 -0.0090115481438836336 0.0053950898522201699 0.0065774201926223786 0.0023876650992215301 -0.0041932860561198614 8.6568853050815629e-05
leaf_count=1139 1336 798 686 606 564 505
internal_value=0 0.0069044 -0.0123989 -0.0520446 -0.0136137 0.0482857
internal_count=5634 4298 3500 2309 1170 1191
shrinkage=0.1


Tree=98
num_leaves=7
num_cat=0
split_feature=19 20 1 20 12 20
split_gain=1.27029 1.07089 1.04517 3.60429 1.38993 1.21217
threshold=-1.2570844018187501 1.1071990906917557 1.0000000180025095e-35 -0.20229694543914942 1.0000000180025095e-35 0.38930278661999046
decision_type=2 2 2 2 2 2
left_child=-1 2 4 -4 5 -2
right_child=1 -3 3 -5 -6 -7
leaf_value=0.0062677690515672837 -0.01514951888993505 0.0035201708842437919 0.0092912313536191258 -0.010250593530871807 0.0031526528798961882 -0.0021970412847590148
leaf_count=499 1091 865 864 892 526 897
internal_value=0 -0.0269015 -0.0462521 0.0111564 -0.0733461 -0.0971564
internal_count=5634 5135 4270 1756 2514 1988
shrinkage=0.1


Tree=99
num_leaves=9
num_cat=0
split_feature=19 10 6 8 17 19 18 19
split_gain=1.15721 1.41176 1.40331 1.26169 0.472868 0.277545 0.221459 0.0819976
threshold=-0.60555858229826465 1.0000000180025095e-35 1.0000000180025095e-35 1.0000000180025095e-35 1.0000000180025095e-35 0.412450510702494 1.0000000180025095e-35 -1.0942029469386287
decision_type=2 2 2 2 2 2 2 2
left_child=4 2 5 -3 6 -2 -1 -8
right_child=1 3 -4 -5 -6 -7 7 -9
leaf_value=0.00018129931197241145 0.0015936725402408702 -0.0052933407274682953 -0.013684735449464478 0.0086111035501552566 -0.0024224528255346106 -0.0037899477153177821 0.0069079030401090263 0.0013197937664197201
leaf_count=622 778 522 936 502 468 787 528 491
internal_value=0 -0.0434846 -0.0726068 0.0392692 0.0262857 -0.00978463 0.041359 0.0555028
internal_count=5634 3525 2501 1024 2109 1565 1641 1019
shrinkage=0.1


end of trees

feature importances:
tenure=176
MonthlyCharges=131
Contract_Month-to-month=29
PaperlessBilling_Yes=28
MultipleLines_Yes=25
StreamingTV_Yes=24
OnlineSecurity_Yes=23
OnlineBackup_Yes=22
StreamingMovies_Yes=21
TechSupport_Yes=19
InternetService_Fiber_optic=18
SeniorCitizen=18
PaymentMethod_Electronic_check=17
Contract_One_year=16
Contract_Two_year=14
Dependents_Yes=13
InternetService_DSL=8
DeviceProtection_Yes=3
PaymentMethod_Mailed_check=3
PaymentMethod_Bank_transfer_(automatic)=2
Partner_Yes=1

parameters:
[boosting: gbdt]
[objective: binary]
[metric: binary,none]
[tree_learner: serial]
[device_type: cpu]
[data: ]
[valid: ]
[num_iterations: 100]
[learning_rate: 0.1]
[num_leaves: 42]
[num_threads: -1]
[max_depth: -1]
[min_data_in_leaf: 468]
[min_sum_hessian_in_leaf: 0.1]
[bagging_fraction: 0.849377]
[bagging_freq: 0]
[bagging_seed: 3]
[feature_fraction: 0.990469]
[feature_fraction_seed: 2]
[early_stopping_round: 0]
[max_delta_step: 0]
[lambda_l1: 0]
[lambda_l2: 100]
[min_gain_to_split: 0]
[drop_rate: 0.1]
[max_drop: 50]
[skip_drop: 0.5]
[xgboost_dart_mode: 0]
[uniform_drop: 0]
[drop_seed: 4]
[top_rate: 0.2]
[other_rate: 0.1]
[min_data_per_group: 100]
[max_cat_threshold: 32]
[cat_l2: 10]
[cat_smooth: 10]
[max_cat_to_onehot: 4]
[top_k: 20]
[monotone_constraints: ]
[feature_contri: ]
[forcedsplits_filename: ]
[refit_decay_rate: 0.9]
[verbosity: -1]
[max_bin: 255]
[min_data_in_bin: 3]
[bin_construct_sample_cnt: 200000]
[histogram_pool_size: -1]
[data_random_seed: 1]
[output_model: LightGBM_model.txt]
[snapshot_freq: -1]
[input_model: ]
[output_result: LightGBM_predict_result.txt]
[initscore_filename: ]
[valid_data_initscores: ]
[pre_partition: 0]
[enable_bundle: 1]
[max_conflict_rate: 0]
[is_enable_sparse: 1]
[sparse_threshold: 0.8]
[use_missing: 1]
[zero_as_missing: 0]
[two_round: 0]
[save_binary: 0]
[enable_load_from_binary_file: 1]
[header: 0]
[label_column: ]
[weight_column: ]
[group_column: ]
[ignore_column: ]
[categorical_feature: ]
[predict_raw_score: 0]
[predict_leaf_index: 0]
[predict_contrib: 0]
[num_iteration_predict: -1]
[pred_early_stop: 0]
[pred_early_stop_freq: 10]
[pred_early_stop_margin: 10]
[convert_model_language: ]
[convert_model: gbdt_prediction.cpp]
[num_class: 1]
[is_unbalance: 0]
[scale_pos_weight: 1]
[sigmoid: 1]
[boost_from_average: 1]
[reg_sqrt: 0]
[alpha: 0.9]
[fair_c: 1]
[poisson_max_delta_step: 0.7]
[tweedie_variance_power: 1.5]
[max_position: 20]
[label_gain: ]
[metric_freq: 1]
[is_provide_training_metric: 0]
[eval_at: ]
[num_machines: 1]
[local_listen_port: 12400]
[time_out: 120]
[machine_list_filename: ]
[machines: ]
[gpu_platform_id: -1]
[gpu_device_id: -1]
[gpu_use_dp: 0]

end of parameters

pandas_categorical:[]
